tree
version=v3
num_class=1
num_tree_per_iteration=1
label_index=0
max_feature_idx=13
objective=regression
feature_names=3 4 5 6 7 8 9 10 11 12 13 14 15 16
feature_infos=[0:23] [0:1] [-41.307373046875:66.901512145996094] [-170.72486877441406:174.80584716796875] [1:77] [0:1947] -1:0 [0:154] [0:29] [0:399] [0:80] [0:659] [0:141] [0:7]
tree_sizes=1058 1085 1086 1087 1082 1102 1092 1095 1113 1109 1100 1091 1117 1116 1125 1095 1111 1118 1116 1118 1103 1113 1084 1124 1085 1117 1098 1089 1108 1074 1089 1092 1094 1089 1126 1093 1103 1120 1101 999 1102 1104 1105 1088 1080 1087 901 1009 1131 987

Tree=0
num_leaves=10
num_cat=2
split_feature=9 6 5 5 9 6 9 9 5
split_gain=22948.6 19525.3 4472.48 2911.48 2120.26 1560.42 1235.15 441.632 126.01
threshold=6.5000000000000009 0 29.500000000000004 29.500000000000004 17.500000000000004 1 3.5000000000000004 31.500000000000004 29.500000000000004
decision_type=2 9 2 2 2 9 2 2 2
left_child=1 2 6 4 5 -2 -1 -6 -3
right_child=3 8 -4 -5 7 -7 -8 -9 -10
leaf_value=0.45718774207092489 0.50463532732080829 0.54941684903750676 0.57689074000547669 0.58093331572674878 0.52998307139415968 0.54794872035521813 0.48227662873311672 0.5457911186391482 0.5707650600980958
leaf_weight=384635 136255 76991 9814 30864 98739 29187 66516 105802 8916
leaf_count=384635 136255 76991 9814 30864 98739 29187 66516 105802 8916
internal_value=0.499872 0.477224 0.463356 0.530771 0.526586 0.512277 0.460887 0.53816 0.551633
internal_weight=0 546872 460965 400847 369983 165442 451151 204541 85907
internal_count=947719 546872 460965 400847 369983 165442 451151 204541 85907
cat_boundaries=0 1 2
cat_threshold=1 1
is_linear=0
shrinkage=1


Tree=1
num_leaves=10
num_cat=2
split_feature=9 6 5 5 9 6 0 9 5
split_gain=15837.7 13133.2 2853.38 2217.17 1796.06 1303.87 979.112 388.218 80.7728
threshold=5.5000000000000009 0 29.500000000000004 29.500000000000004 15.500000000000002 1 11.500000000000002 28.500000000000004 29.500000000000004
decision_type=2 9 2 2 2 9 2 2 2
left_child=1 2 6 4 5 -2 -1 -6 -3
right_child=3 8 -4 -5 7 -7 -8 -9 -10
leaf_value=-0.045342416434295825 0.000542621987624283 0.041052119057885396 0.063510104715292295 0.067208960406496557 0.023187831850714349 0.040177669211130071 -0.027906084161421998 0.037300628778236006 0.05867808562497237
leaf_weight=135688 137605 73142 8966 32254 105723 29051 296340 120576 8374
leaf_count=135688 137605 73142 8966 32254 105723 29051 296340 120576 8374
internal_value=0 -0.0198248 -0.0314124 0.0243614 0.0208444 0.00745169 -0.0333824 0.0307074 0.0428628
internal_weight=0 522510 440994 425209 392955 166656 432028 226299 81516
internal_count=947719 522510 440994 425209 392955 166656 432028 226299 81516
cat_boundaries=0 1 2
cat_threshold=1 1
is_linear=0
shrinkage=0.17


Tree=2
num_leaves=10
num_cat=2
split_feature=9 6 5 5 9 6 11 13 5
split_gain=10969.2 9290.64 2127.55 1376.63 1035.58 928.411 768.231 176.287 59.1554
threshold=6.5000000000000009 0 1.0000000180025095e-35 29.500000000000004 22.500000000000004 1 3.5000000000000004 4.5000000000000009 29.500000000000004
decision_type=2 9 2 2 2 9 2 2 2
left_child=1 2 6 4 5 -2 -1 -6 -3
right_child=3 8 -4 -5 7 -7 -8 -9 -10
leaf_value=-0.031075207768015856 0.0053793787129154677 0.034150963369756211 0.05302891449803579 0.055855535361172319 0.033392541389249991 0.034856667585954501 -0.015060797620612534 0.021847428973352675 0.048777972890516212
leaf_weight=334318 172728 76991 9827 30864 96257 37601 116820 63397 8916
leaf_count=334318 172728 76991 9827 30864 96257 37601 116820 63397 8916
internal_value=0 -0.0156583 -0.0252238 0.0213624 0.018485 0.0106491 -0.0269284 0.0288081 0.0356691
internal_weight=0 546872 460965 400847 369983 210329 451138 159654 85907
internal_count=947719 546872 460965 400847 369983 210329 451138 159654 85907
cat_boundaries=0 1 2
cat_threshold=1 1
is_linear=0
shrinkage=0.17


Tree=3
num_leaves=10
num_cat=2
split_feature=9 6 5 9 5 9 6 3 12
split_gain=7641.6 6720.95 1731.26 965.911 695.005 429.272 472.788 101.601 69.5666
threshold=9.5000000000000018 0 29.500000000000004 3.5000000000000004 29.500000000000004 37.500000000000007 1 -97.394836877441392 1.0000000180025095e-35
decision_type=2 9 2 2 2 2 9 2 2
left_child=1 2 3 -1 5 6 -2 -7 -3
right_child=4 8 -4 -5 -6 7 -8 -9 -10
leaf_value=-0.024813643734826748 0.01075237197769007 0.027168028335369451 0.044355448278223984 -0.0070251685332303471 0.046643910926868745 0.019063422418166418 0.030604347135362083 0.032438797205834501 0.038322417016337221
leaf_weight=384635 187390 77075 12096 114473 26958 22675 42541 59431 20445
leaf_count=384635 187390 77075 12096 114473 26958 22675 42541 59431 20445
internal_value=0 -0.0113917 -0.0191936 -0.0207338 0.0204557 0.0181932 0.0144253 0.028745 0.0295065
internal_weight=0 608724 511204 499108 338995 312037 229931 82106 97520
internal_count=947719 608724 511204 499108 338995 312037 229931 82106 97520
cat_boundaries=0 1 2
cat_threshold=1 1
is_linear=0
shrinkage=0.17


Tree=4
num_leaves=10
num_cat=2
split_feature=9 6 5 0 5 0 6 9 12
split_gain=5264.3 4630.06 1192.66 846.11 478.789 343.816 343.374 218.506 50.678
threshold=9.5000000000000018 0 29.500000000000004 11.500000000000002 29.500000000000004 10.500000000000002 1 21.500000000000004 1.5000000000000002
decision_type=2 9 2 2 2 2 9 2 2
left_child=1 2 3 -1 5 6 -2 -7 -3
right_child=4 8 -4 -5 -6 7 -8 -9 -10
leaf_value=-0.027810057251836155 -0.0028153524483493651 0.02297326515551195 0.036815021427905083 -0.012587534379079531 0.03871444823060765 0.012481457626340295 0.028234915322696164 0.022557428529659196 0.034389441947533211
leaf_weight=151527 48731 84560 12096 347581 26958 115574 13049 134683 12960
leaf_count=151527 48731 84560 12096 347581 26958 115574 13049 134683 12960
internal_value=0 -0.00945509 -0.0159307 -0.017209 0.0169782 0.0151004 0.003743 0.0179041 0.0244904
internal_weight=0 608724 511204 499108 338995 312037 61780 250257 97520
internal_count=947719 608724 511204 499108 338995 312037 61780 250257 97520
cat_boundaries=0 1 2
cat_threshold=1 1
is_linear=0
shrinkage=0.17


Tree=5
num_leaves=10
num_cat=2
split_feature=9 6 9 5 1 6 5 5 13
split_gain=3794.03 2921.88 675.111 540.423 484.345 471.682 310.126 205.687 176.909
threshold=3.5000000000000004 0 14.500000000000002 1.0000000180025095e-35 1.0000000180025095e-35 1 1.0000000180025095e-35 29.500000000000004 3.5000000000000004
decision_type=2 9 2 2 2 9 2 2 2
left_child=1 3 5 4 -1 6 -2 8 -4
right_child=2 -3 7 -5 -6 -7 -8 -9 -10
leaf_value=-0.013148326463943233 -0.0015108494111858973 0.020578719991773999 0.022238546408954878 0.029074861306699683 -0.025748535794366294 0.02013744453899019 0.032629587766814558 0.032306000553390668 0.012025610032116517
leaf_weight=247752 174956 71626 68960 7295 136873 41128 8043 21593 169493
leaf_count=247752 174956 71626 68960 7295 136873 41128 8043 21593 169493
internal_value=0 -0.0109929 0.0105246 -0.0167629 -0.0176322 0.00368684 -1.0341e-05 0.0164179 0.0149792
internal_weight=0 463546 484173 391920 384625 224127 182999 260046 238453
internal_count=947719 463546 484173 391920 384625 224127 182999 260046 238453
cat_boundaries=0 1 2
cat_threshold=1 1
is_linear=0
shrinkage=0.17


Tree=6
num_leaves=10
num_cat=2
split_feature=11 6 0 1 5 7 6 0 9
split_gain=2655.12 2135.73 618.259 438.06 300.555 312.312 299.364 179.15 75.8309
threshold=10.500000000000002 0 11.500000000000002 1.0000000180025095e-35 29.500000000000004 11.500000000000002 1 3.5000000000000004 142.50000000000003
decision_type=2 9 2 2 2 2 9 2 2
left_child=1 2 7 -4 5 6 -2 -1 -7
right_child=4 -3 3 -5 -6 8 -8 -9 -10
leaf_value=-0.014876411651939345 0.0042294630604161288 0.016868854439202104 -0.0043213817250983182 -0.018321072796277326 0.026879584864379427 0.017885086906732215 0.018324672509989978 -0.027133602754846674 0.041291241605192597
leaf_weight=62400 238313 86863 237978 88659 30426 68581 53283 76968 4248
leaf_count=62400 238313 86863 237978 88659 30426 68581 53283 76968 4248
internal_value=0 -0.00760426 -0.012166 -0.00812131 0.0106474 0.00929221 0.00680506 -0.0216456 0.0192503
internal_weight=0 552868 466005 326637 394851 364425 291596 139368 72829
internal_count=947719 552868 466005 326637 394851 364425 291596 139368 72829
cat_boundaries=0 1 2
cat_threshold=1 1
is_linear=0
shrinkage=0.17


Tree=7
num_leaves=10
num_cat=2
split_feature=9 6 5 0 6 11 7 11 5
split_gain=1915.36 1420.65 362.766 337.697 330.868 322.096 243.983 185.549 155.294
threshold=3.5000000000000004 0 1.0000000180025095e-35 10.500000000000002 1 13.500000000000002 3.5000000000000004 39.500000000000007 29.500000000000004
decision_type=2 9 2 2 9 2 2 2 2
left_child=1 2 5 4 7 -1 8 -2 -5
right_child=3 -3 -4 6 -6 -7 -8 -9 -10
leaf_value=-0.013073951293067036 -0.011842862287428675 0.014203894020320634 0.025721183463308078 0.0037521643826675926 0.017306457397362439 0.033317390682765423 0.013730104472637217 0.0060175578569899423 0.023742906943432004
leaf_weight=380250 54916 71626 7295 163799 21731 4375 207444 24226 12057
leaf_count=380250 54916 71626 7295 163799 21731 4375 207444 24226 12057
internal_value=0 -0.00781066 -0.011834 0.00747791 -0.00127383 -0.0125463 0.0097811 -0.00637564 0.00512277
internal_weight=0 463546 391920 484173 100873 384625 383300 79142 175856
internal_count=947719 463546 391920 484173 100873 384625 383300 79142 175856
cat_boundaries=0 1 2
cat_threshold=1 1
is_linear=0
shrinkage=0.17


Tree=8
num_leaves=10
num_cat=2
split_feature=7 6 5 0 13 6 1 12 11
split_gain=1346.27 1150.54 424.627 374.858 185.226 209.033 169.499 109.492 62.3892
threshold=2.5000000000000004 0 1.0000000180025095e-35 11.500000000000002 3.5000000000000004 1 1.0000000180025095e-35 1.0000000180025095e-35 33.500000000000007
decision_type=2 9 2 2 2 9 2 2 2
left_child=1 2 3 -1 8 6 -6 -7 -2
right_child=4 -3 -4 -5 5 7 -8 -9 -10
leaf_value=-0.015382938376359487 0.012647453329662635 0.011954218188428621 0.021175504822602734 -0.0054283479666871054 0.0073598612123208446 -0.00053425798185359344 -0.0044465084145232257 0.020742244301354566 0.022264961470417247
leaf_weight=155725 83069 103756 14422 366905 100374 8722 54075 35201 25470
leaf_count=155725 83069 103756 14422 366905 100374 8722 54075 35201 25470
internal_value=0 -0.00443422 -0.00760039 -0.00839446 0.00925832 0.00616913 0.00322627 0.0165173 0.0149043
internal_weight=0 640808 537052 522630 306911 198372 154449 43923 108539
internal_count=947719 640808 537052 522630 306911 198372 154449 43923 108539
cat_boundaries=0 1 2
cat_threshold=1 1
is_linear=0
shrinkage=0.17


Tree=9
num_leaves=10
num_cat=2
split_feature=11 6 1 11 13 6 11 5 10
split_gain=1037.83 755.018 408.622 216.913 170.432 169.149 183.78 117.74 102.296
threshold=13.500000000000002 0 1.0000000180025095e-35 3.5000000000000004 3.5000000000000004 1 44.500000000000007 1.0000000180025095e-35 1.0000000180025095e-35
decision_type=2 9 2 2 2 9 2 2 2
left_child=1 2 3 -1 -2 6 -6 -4 -7
right_child=4 -3 7 -5 5 8 -8 -9 -10
leaf_value=-0.0065655780099636478 0.013427845200487787 0.0096240529031159545 -0.01457895863632153 0.0025810450105581092 -0.0016701196076837424 0.0012480717693569945 0.008827674471739301 0.01893623252642954 0.017791340570610475
leaf_weight=229538 96635 94675 159311 111247 115286 14748 82815 3088 40376
leaf_count=229538 96635 94675 159311 111247 115286 14748 82815 3088 40376
internal_value=0 -0.00430348 -0.00692397 -0.00357972 0.007354 0.00503612 0.00271842 -0.0139417 0.0133653
internal_weight=0 597859 503184 340785 349860 253225 198101 162399 55124
internal_count=947719 597859 503184 340785 349860 253225 198101 162399 55124
cat_boundaries=0 1 2
cat_threshold=1 1
is_linear=0
shrinkage=0.17


Tree=10
num_leaves=10
num_cat=2
split_feature=11 6 0 7 13 6 0 9 0
split_gain=729.755 526.647 291.26 250.256 147.246 193.608 144.909 109.262 70.9109
threshold=17.500000000000004 0 11.500000000000002 1.5000000000000002 4.5000000000000009 1 4.5000000000000009 107.50000000000001 11.500000000000002
decision_type=2 9 2 2 2 9 2 2 2
left_child=1 2 6 -4 8 7 -1 -6 -2
right_child=4 -3 3 -5 5 -7 -8 -9 -10
leaf_value=-0.0067982892076591528 0.002443482283280935 0.0078766965635356494 -0.0049738637333200681 0.0059211213745243617 -0.0025940768259189884 0.014114551223530884 -0.017182934975154711 0.026541025145459425 0.011596033501874868
leaf_weight=85288 29348 103751 310251 75820 90160 30921 71297 3880 147003
leaf_count=85288 29348 103751 310251 75820 90160 30921 71297 3880 147003
internal_value=0 -0.00322072 -0.00534245 -0.00283421 0.00690944 0.00244503 -0.0115267 -0.00139199 0.0100729
internal_weight=0 646407 542656 386071 301312 124961 156585 94040 176351
internal_count=947719 646407 542656 386071 301312 124961 156585 94040 176351
cat_boundaries=0 1 2
cat_threshold=1 1
is_linear=0
shrinkage=0.17


Tree=11
num_leaves=10
num_cat=3
split_feature=10 11 6 1 5 6 13 9 6
split_gain=534.385 256.812 291.967 232.796 138.598 116.443 115.496 110.296 56.2835
threshold=1.0000000180025095e-35 13.500000000000002 0 1.0000000180025095e-35 29.500000000000004 1 3.5000000000000004 104.50000000000001 2
decision_type=2 2 9 2 2 9 2 2 9
left_child=1 2 3 -1 5 7 8 -2 -3
right_child=4 6 -4 -5 -6 -7 -8 -9 -10
leaf_value=-0.0032664013058025247 0.0021612363935234863 0.013990200192838614 0.0052185198707386405 -0.01147251653016935 0.016420857728408421 0.011899700562527576 0.00071708436397207014 0.025364437734023942 -0.004404372001231993
leaf_weight=303406 187127 35550 79230 148957 33920 52859 94997 6114 5559
leaf_count=303406 187127 35550 79230 148957 33920 52859 94997 6114 5559
internal_value=0 -0.00261421 -0.00430121 -0.00596856 0.0062335 0.00482938 0.00397476 0.00289537 0.0115028
internal_weight=0 667699 531593 452363 280020 246100 136106 193241 41109
internal_count=947719 667699 531593 452363 280020 246100 136106 193241 41109
cat_boundaries=0 1 2 3
cat_threshold=1 1 1
is_linear=0
shrinkage=0.17


Tree=12
num_leaves=10
num_cat=0
split_feature=11 11 7 2 5 4 11 13 3
split_gain=383.515 253.754 271.02 165.636 145.044 136.292 131.25 205.092 77.8068
threshold=3.5000000000000004 1.0000000180025095e-35 1.0000000180025095e-35 31.76572418212891 29.500000000000004 38.500000000000007 36.500000000000007 3.5000000000000004 -97.394836877441392
decision_type=2 2 2 2 2 2 2 2 2
left_child=1 5 3 -3 6 -1 7 -2 -8
right_child=4 2 -4 -5 -6 -7 8 -9 -10
leaf_value=-0.0049595546367042732 0.0040745898845266715 -0.025947122053400266 0.0022396740193066579 -0.010312705717255198 0.013133292796405955 0.0028780816937668489 0.00012542658357593935 -0.0040685839883575761 0.0089680337559345825
leaf_weight=119685 201601 25945 40275 79869 37606 138115 39699 160580 104344
leaf_count=119685 201601 25945 40275 79869 37606 138115 39699 160580 104344
internal_value=0 -0.00396827 -0.00962879 -0.0141462 0.00294713 -0.000760582 0.00219043 0.000464155 0.00653097
internal_weight=0 403889 146089 105814 543830 257800 506224 362181 144043
internal_count=947719 403889 146089 105814 543830 257800 506224 362181 144043
is_linear=0
shrinkage=0.17


Tree=13
num_leaves=10
num_cat=2
split_feature=10 0 0 6 3 11 3 6 1
split_gain=289.315 150.559 165.991 129.116 117.709 107.939 88.03 69.3444 91.6889
threshold=1.0000000180025095e-35 11.500000000000002 19.500000000000004 0 9.9820841407775909 13.500000000000002 -117.15899658203124 1 1.0000000180025095e-35
decision_type=2 2 2 9 2 2 2 9 2
left_child=1 3 5 4 -1 -3 -4 8 -2
right_child=7 2 6 -5 -6 -7 -8 -9 -10
leaf_value=-0.0086907638530272138 0.0053216927132287055 0.00020709584716621819 0.0046992900183828751 0.0050744591150212901 0.01372691659437208 0.0077090498600382792 -0.0068255622618556763 0.0093921658407236201 -0.0024752827213438602
leaf_weight=157509 152785 258962 22634 26424 7073 70522 124575 66249 60986
leaf_count=157509 152785 258962 22634 26424 7073 70522 124575 66249 60986
internal_value=0 -0.00192353 -0.000307626 -0.00595633 -0.00772735 0.0018128 -0.00505357 0.0045866 0.00309732
internal_weight=0 667699 476693 191006 164582 329484 147209 280020 213771
internal_count=947719 667699 476693 191006 164582 329484 147209 280020 213771
cat_boundaries=0 1 2
cat_threshold=1 1
is_linear=0
shrinkage=0.17


Tree=14
num_leaves=10
num_cat=1
split_feature=5 11 6 1 13 2 1 4 0
split_gain=248.203 222.641 168.889 174.724 69.8594 100.991 45.1775 43.9982 41.4776
threshold=29.500000000000004 22.500000000000004 0 1.0000000180025095e-35 4.5000000000000009 33.60498237609864 1.0000000180025095e-35 28.500000000000004 11.500000000000002
decision_type=2 2 9 2 2 2 2 2 2
left_child=1 2 3 -1 8 -6 -4 -2 -3
right_child=7 4 6 -5 5 -7 -8 -9 -10
leaf_value=-0.0013275321880080919 -0.01548492257383559 -0.00030835813534035346 0.0017230851724881369 -0.0077435593307749705 -0.0091440913515959902 0.0035353366270408342 0.0094352501958629813 0.012650444802144894 0.0079357671716274378
leaf_weight=388427 1662 21138 68262 179281 23610 78566 32357 47932 106484
leaf_count=388427 1662 21138 68262 179281 23610 78566 32357 47932 106484
internal_value=0 -0.000646486 -0.00221599 -0.0033537 0.00391813 0.000605477 0.00420316 0.0117076 0.00657029
internal_weight=0 898125 668327 567708 229798 102176 100619 49594 127622
internal_count=947719 898125 668327 567708 229798 102176 100619 49594 127622
cat_boundaries=0 1
cat_threshold=1
is_linear=0
shrinkage=0.17


Tree=15
num_leaves=10
num_cat=0
split_feature=5 3 0 0 0 9 2 4 11
split_gain=170.987 177.168 182.65 200.282 134.942 62.2691 34.3767 30.3104 29.9828
threshold=29.500000000000004 -117.05722808837889 10.500000000000002 20.500000000000004 4.5000000000000009 57.500000000000007 47.618848800659187 28.500000000000004 10.500000000000002
decision_type=2 2 2 2 2 2 2 2 2
left_child=1 5 4 -4 -3 6 -1 -2 -9
right_child=7 2 3 -5 -6 -7 -8 8 -10
leaf_value=0.0035641863736999555 -0.012852485607188782 -0.0026085837243371153 0.0015165201605404795 -0.0064094116859141018 -0.012082802621156186 0.022594675733136321 0.012709148739523527 0.015814418605404605 0.0070983102070131341
leaf_weight=102897 1662 116972 475578 114278 69120 5850 13430 18706 29226
leaf_count=102897 1662 116972 475578 114278 69120 5850 13430 18706 29226
internal_value=0 -0.000536583 -0.00148402 -1.90405e-05 -0.00612759 0.00548063 0.00461998 0.00971728 0.0104999
internal_weight=0 898125 775948 589856 186092 122177 116327 49594 47932
internal_count=947719 898125 775948 589856 186092 122177 116327 49594 47932
is_linear=0
shrinkage=0.17


Tree=16
num_leaves=10
num_cat=0
split_feature=11 11 7 13 11 2 4 3 9
split_gain=144.663 166.855 173.606 118.481 112.226 103.483 75.8259 73.547 68.668
threshold=3.5000000000000004 1.0000000180025095e-35 1.0000000180025095e-35 2.5000000000000004 25.500000000000004 31.76572418212891 38.500000000000007 -122.04106521606444 5.5000000000000009
decision_type=2 2 2 2 2 2 2 2 2
left_child=1 6 5 -2 7 -3 -1 -5 -6
right_child=3 2 -4 4 8 -7 -8 -9 -10
leaf_value=-0.0029680625686979377 0.0073804824218320856 -0.019970473305375894 0.0024717094872935379 0.012207765560197561 0.03430903268534255 -0.0076127214252399876 0.0028779378885439217 -0.0025836030417132464 0.0031326504436590455
leaf_weight=119685 91735 25945 40275 10161 2061 79869 138115 221372 218501
leaf_count=119685 91735 25945 40275 10161 2061 79869 138115 221372 218501
internal_value=0 -0.00243719 -0.00702727 0.00181004 0.000679733 -0.0106428 0.000163902 -0.00193447 0.00342397
internal_weight=0 403889 146089 543830 452095 105814 257800 231533 220562
internal_count=947719 403889 146089 543830 452095 105814 257800 231533 220562
is_linear=0
shrinkage=0.17


Tree=17
num_leaves=10
num_cat=1
split_feature=12 3 6 11 0 3 3 11 0
split_gain=117.445 107.217 78.6616 137.595 59.6177 58.7054 323.052 304.624 50.1903
threshold=1.5000000000000002 -95.706349414062487 0 41.500000000000007 12.500000000000002 -105.28093017578124 -115.16360855102538 65.500000000000014 7.5000000000000009
decision_type=2 2 9 2 2 2 2 2 2
left_child=1 4 3 -3 8 6 -2 -8 -1
right_child=5 2 -4 -5 -6 -7 7 -9 -10
leaf_value=0.00045177472741233729 0.0068181227959273104 -0.0040708270373761065 0.0026654129157528549 0.0089717804412503717 0.0041195660208308005 0.0047355560710251434 -0.007097237144889656 -0.059838624444897653 -0.010757169999970461
leaf_weight=51993 37330 404181 74574 24811 142100 182590 10828 4472 14840
leaf_count=51993 37330 404181 74574 24811 142100 182590 10828 4472 14840
internal_value=0 -0.00108735 -0.00243063 -0.0033165 0.00215018 0.00329368 -0.00170866 -0.0225129 -0.00203713
internal_weight=0 712499 503566 428992 208933 235220 52630 15300 66833
internal_count=947719 712499 503566 428992 208933 235220 52630 15300 66833
cat_boundaries=0 1
cat_threshold=1
is_linear=0
shrinkage=0.17


Tree=18
num_leaves=10
num_cat=1
split_feature=5 0 0 1 0 3 6 7 4
split_gain=97.359 89.1807 125.547 109.854 97.1075 89.5257 77.6503 47.6365 21.2664
threshold=29.500000000000004 10.500000000000002 19.500000000000004 1.0000000180025095e-35 5.5000000000000009 -71.152591705322251 0 15.500000000000002 28.500000000000004
decision_type=2 2 2 2 2 2 9 2 2
left_child=1 4 3 -3 7 -6 -4 -1 -2
right_child=8 2 6 -5 5 -7 -8 -9 -10
leaf_value=-0.0016830016031032786 -0.011572582523610833 0.0035839777739969272 -0.004552487793784748 -0.0023241592836276666 -0.011161962602962008 0.0084988309543124925 0.00444409645369868 0.013248561827383397 0.0079879966658368377
leaf_weight=152749 1662 354027 164071 122396 57508 7575 33364 6435 47932
leaf_count=152749 1662 354027 164071 122396 57508 7575 33364 6435 47932
internal_value=0 -0.000404896 0.000572374 0.00206614 -0.00334131 -0.00887365 -0.00303218 -0.00107939 0.00733248
internal_weight=0 898125 673858 476423 224267 65083 197435 159184 49594
internal_count=947719 898125 673858 476423 224267 65083 197435 159184 49594
cat_boundaries=0 1
cat_threshold=1
is_linear=0
shrinkage=0.17


Tree=19
num_leaves=10
num_cat=1
split_feature=3 6 0 0 3 1 2 2 2
split_gain=81.988 93.2407 107.391 155.363 92.4837 51.8186 41.4777 70.1339 51.3026
threshold=-117.15899658203124 0 10.500000000000002 20.500000000000004 9.9820841407775909 1.0000000180025095e-35 38.356391906738288 47.272397994995117 38.433725357055664
decision_type=2 9 2 2 2 2 2 2 2
left_child=6 2 4 -4 -2 -3 -1 8 -8
right_child=1 5 3 -5 -6 -7 7 -9 -10
leaf_value=0.0067562536726071976 -0.0061368348071469906 0.00092546053427586662 0.0011819399423265244 -0.0063163201210883861 0.013676596960384259 0.0076800937237767363 -0.035178691189785963 0.0080091485099017881 -0.0029494326358007576
leaf_weight=70937 155082 92637 417478 98749 7121 50835 1495 21832 31553
leaf_count=70937 155082 92637 417478 98749 7121 50835 1495 21832 31553
internal_value=0 -0.000618649 -0.00145132 -0.000252401 -0.00526699 0.00331876 0.00404133 0.000532073 -0.0044074
internal_weight=0 821902 678430 516227 162203 143472 125817 54880 33048
internal_count=947719 821902 678430 516227 162203 143472 125817 54880 33048
cat_boundaries=0 1
cat_threshold=1
is_linear=0
shrinkage=0.17


Tree=20
num_leaves=10
num_cat=0
split_feature=12 3 11 13 3 3 3 11 9
split_gain=69.4401 78.6935 60.8404 58.4187 43.5332 108.072 166.5 35.9098 53.7756
threshold=1.0000000180025095e-35 -88.932048797607408 70.500000000000014 3.5000000000000004 -89.55580902099608 -115.16360855102538 -115.08849716186522 76.500000000000014 8.5000000000000018
decision_type=2 2 2 2 2 2 2 2 2
left_child=1 -1 3 -3 5 -2 -7 8 -6
right_child=4 2 -4 -5 7 6 -8 -9 -10
leaf_value=0.0012562996068956284 0.0063027228277788673 -0.0019356646934371926 0.013682272528582704 -0.007685677857177991 0.0077036818375680067 -0.045083199309910615 -0.0023717545109387863 0.0094694105042874704 0.000679904398391172
leaf_weight=257344 48283 305744 6511 61302 44974 2719 88209 27466 105167
leaf_count=257344 48283 305744 6511 61302 44974 2719 88209 27466 105167
internal_value=0 -0.00103119 -0.00260705 -0.002896 0.00205348 -0.000197376 -0.00364895 0.00381773 0.00278384
internal_weight=0 630901 373557 367046 316818 139211 90928 177607 150141
internal_count=947719 630901 373557 367046 316818 139211 90928 177607 150141
is_linear=0
shrinkage=0.17


Tree=21
num_leaves=10
num_cat=0
split_feature=11 13 11 7 3 11 4 4 3
split_gain=58.3746 98.9087 93.3488 120.08 77.0462 48.721 81.8254 44.7715 59.8403
threshold=4.5000000000000009 2.5000000000000004 1.0000000180025095e-35 1.5000000000000002 -76.588699340820298 22.500000000000004 49.000000000000007 38.500000000000007 -122.70182800292969
decision_type=2 2 2 2 2 2 2 2 2
left_child=2 -2 7 4 -4 6 -3 8 -1
right_child=1 5 3 -5 -6 -7 -8 -9 -10
leaf_value=-0.02109504807084513 0.0069700994783602893 0.0015567902375396153 -0.004118029328583175 0.0078816693139919097 -0.013344705430043556 0.0018700457631611899 -0.0053343347002901996 0.0026710862163700421 -0.0010713446484504527
leaf_weight=4481 74006 104987 119106 19946 33515 243630 94729 138115 115204
leaf_count=4481 74006 104987 119106 19946 33515 243630 94729 138115 115204
internal_value=0 0.00121688 -0.00146283 -0.00452301 -0.00614417 0.000256517 -0.0017118 0.000585597 -0.00182103
internal_weight=0 517352 430367 172567 152621 443346 199716 257800 119685
internal_count=947719 517352 430367 172567 152621 443346 199716 257800 119685
is_linear=0
shrinkage=0.17


Tree=22
num_leaves=10
num_cat=0
split_feature=5 3 3 10 12 2 3 3 5
split_gain=53.5556 49.863 107.77 259.92 67.9107 58.9369 60.5824 32.4108 19.2053
threshold=29.500000000000004 -115.16360855102538 -111.54822921752928 12.500000000000002 1.5000000000000002 32.768972396850593 -117.05722808837889 -117.05722808837889 724.50000000000011
decision_type=2 2 2 2 2 2 2 2 2
left_child=1 5 3 -3 -4 6 -1 -7 -2
right_child=8 2 4 -5 -6 7 -8 -9 -10
leaf_value=0.00078229464004957671 0.0059662419000038412 -0.0061298917328798568 -0.00127473057820675 -0.064404688763002219 0.0026751417557048288 0.002915331114610919 -0.030111462818931109 0.014246758148658549 -0.015761108914356396
leaf_weight=4504 48389 29848 571540 2389 161299 117673 3095 7777 1205
leaf_count=4504 48389 29848 571540 2389 161299 117673 3095 7777 1205
internal_value=0 -0.000300302 -0.000828532 -0.0104485 -0.000405358 0.0027372 -0.0118004 0.0036178 0.00543833
internal_weight=0 898125 765076 32237 732839 133049 7599 125450 49594
internal_count=947719 898125 765076 32237 732839 133049 7599 125450 49594
is_linear=0
shrinkage=0.17


Tree=23
num_leaves=10
num_cat=1
split_feature=1 6 0 0 3 2 2 7 3
split_gain=43.5781 127.743 64.1526 55.2668 52.5447 49.4484 138.268 47.9726 42.7283
threshold=1.0000000180025095e-35 0 21.500000000000004 10.500000000000002 -70.959629058837876 33.499458312988288 33.440423965454109 18.500000000000004 1.0000000180025095e-35
decision_type=2 9 2 2 2 2 2 2 2
left_child=2 5 3 8 -5 6 -2 -7 -1
right_child=1 -3 -4 4 -6 7 -8 -9 -10
leaf_value=-0.0025714605177309877 -0.0051421991759350713 0.0054596545606876998 -0.0046934454501932552 0.0024902968012271817 -0.0085129245271579387 -0.0024649662204538855 -0.034587418365330073 0.012776061065692764 0.011218667486519401
leaf_weight=119984 59047 58515 56233 447821 12904 175172 4999 6179 6865
leaf_count=119984 59047 58515 56233 447821 12904 175172 4999 6179 6865
internal_value=0 -0.00167783 0.000792026 0.00131701 0.00218212 -0.00337976 -0.00744049 -0.00194567 -0.00182515
internal_weight=0 303912 643807 587574 460725 245397 64046 181351 126849
internal_count=947719 303912 643807 587574 460725 245397 64046 181351 126849
cat_boundaries=0 1
cat_threshold=1
is_linear=0
shrinkage=0.17


Tree=24
num_leaves=10
num_cat=2
split_feature=7 5 3 3 2 11 5 6 6
split_gain=37.3272 35.6098 35.7028 46.5162 43.3688 18.7554 18.3356 10.383 7.60972
threshold=38.500000000000007 29.500000000000004 -121.79596710205077 -121.60229873657225 45.450312911987311 10.500000000000002 457.50000000000006 0 1
decision_type=2 2 2 2 2 2 2 9 9
left_child=1 2 4 -4 -1 6 -3 -7 -2
right_child=8 5 3 -5 -6 7 -8 -9 -10
leaf_value=0.0093510219507484966 0.015114138751041811 0.0099458923948972083 -0.019823732539867533 -0.00052462027534717838 -0.00046074941186830025 0.0041458703127024432 -0.010803173263536123 -0.002395421094653594 0.0015280724793768406
leaf_weight=23686 5634 17846 3625 835197 28909 18806 1322 11183 1511
leaf_count=23686 5634 17846 3625 835197 28909 18806 1322 11183 1511
internal_value=0 -9.29879e-05 -0.000338622 -0.000608022 0.00395795 0.00436137 0.00851485 0.0017066 0.012241
internal_weight=0 940574 891417 838822 52595 49157 19168 29989 7145
internal_count=947719 940574 891417 838822 52595 49157 19168 29989 7145
cat_boundaries=0 1 2
cat_threshold=1 1
is_linear=0
shrinkage=0.17


Tree=25
num_leaves=10
num_cat=1
split_feature=2 1 6 0 0 3 3 5 8
split_gain=34.802 32.1897 91.5152 52.293 51.1761 34.4484 30.9843 20.1157 13.1531
threshold=47.272397994995117 1.0000000180025095e-35 0 20.500000000000004 10.500000000000002 -74.293926239013658 -84.440704345703111 319.50000000000006 2.5000000000000004
decision_type=2 2 9 2 2 2 2 2 2
left_child=1 3 5 4 -1 -3 -5 -4 -2
right_child=8 2 7 6 -6 -7 -8 -9 -10
leaf_value=-0.0019194355540069431 0.0064182540094562639 -0.003864022854869639 0.0049379955108712773 -0.0007006026450247138 0.0020678214145278631 0.0025029778883377111 -0.0070264885942031329 -0.018277673222889479 -0.0084821406385749091
leaf_weight=120520 29659 209856 55509 56611 407831 27813 37003 1100 1817
leaf_count=120520 29659 209856 55509 56611 407831 27813 37003 1100 1817
internal_value=0 -0.000190939 -0.00165583 0.000502164 0.0011583 -0.00311893 -0.00320105 0.00448688 0.00555811
internal_weight=0 916243 294278 621965 528351 237669 93614 56609 31476
internal_count=947719 916243 294278 621965 528351 237669 93614 56609 31476
cat_boundaries=0 1
cat_threshold=1
is_linear=0
shrinkage=0.17


Tree=26
num_leaves=10
num_cat=0
split_feature=2 2 10 2 2 3 11 11 3
split_gain=30.0015 166.137 100.256 88.5404 65.2047 60.6413 58.9473 47.5297 43.751
threshold=33.499458312988288 33.440423965454109 12.500000000000002 34.958068847656257 35.339486453247076 -97.573005676269503 1.0000000180025095e-35 70.500000000000014 -103.19837585449217
decision_type=2 2 2 2 2 2 2 2 2
left_child=1 8 6 -2 5 -5 -3 -6 -1
right_child=3 2 -4 4 7 -7 -8 -9 -10
leaf_value=-0.006775363380685762 0.005498192616902816 -0.026068930831355603 -0.068480848090921045 0.012167681050645297 -0.00023227987427287678 -0.011822722313649421 0.00074616755492588796 0.0057040356033144172 0.00029546553414491343
leaf_weight=29175 90966 6479 1186 3527 558559 22283 3735 41903 189906
leaf_count=29175 90966 6479 1186 3527 558559 22283 3735 41903 189906
internal_value=0 -0.00168731 -0.0216958 0.000542208 -0.000177648 -0.00854437 -0.0162633 0.000181984 -0.000646156
internal_weight=0 230481 11400 717238 626272 25810 10214 600462 219081
internal_count=947719 230481 11400 717238 626272 25810 10214 600462 219081
is_linear=0
shrinkage=0.17


Tree=27
num_leaves=10
num_cat=0
split_feature=9 5 4 13 11 11 2 2 9
split_gain=25.8217 23.0601 24.9456 23.6589 97.7213 44.3621 22.9378 59.7234 19.2129
threshold=81.500000000000014 29.500000000000004 17.500000000000004 3.5000000000000004 5.5000000000000009 20.500000000000004 33.748500411987315 31.76572418212891 6.5000000000000009
decision_type=2 2 2 2 2 2 2 2 2
left_child=1 3 -3 4 -1 -5 7 -2 -4
right_child=6 2 8 5 -6 -7 -8 -9 -10
leaf_value=-0.0011112232213346543 0.013269218730981573 -0.020822180270527801 0.0084168339020355403 -0.0047471666348814041 0.0036384157144719351 -0.0001004511481928594 0.0085750612707668778 -0.026434746306189544 0.0013446437788306408
leaf_weight=438033 2358 1188 18291 89843 175285 175100 17333 2044 28244
leaf_count=438033 2358 1188 18291 89843 175285 175100 17333 2044 28244
internal_value=0 -0.00013595 0.00350342 -0.000333707 0.000246214 -0.00167617 0.00579194 -0.0051667 0.00412443
internal_weight=0 925984 47723 878261 613318 264943 21735 4402 46535
internal_count=947719 925984 47723 878261 613318 264943 21735 4402 46535
is_linear=0
shrinkage=0.17


Tree=28
num_leaves=10
num_cat=0
split_feature=2 0 0 0 3 3 1 2 8
split_gain=22.7238 20.7353 54.9781 53.6909 34.4267 30.9738 26.9956 14.5117 10.1379
threshold=47.272397994995117 17.500000000000004 12.500000000000002 2.5000000000000004 -84.440704345703111 -84.386772155761705 1.0000000180025095e-35 33.499458312988288 2.5000000000000004
decision_type=2 2 2 2 2 2 2 2 2
left_child=1 2 3 -1 7 -6 -4 -3 -2
right_child=8 4 6 -5 5 -7 -8 -9 -10
leaf_value=0.0019469588578819306 0.0052463795417188345 -0.002087831866895695 0.002889094475730207 -0.003051260229882257 -0.023411439787828107 -0.0028827006846201988 -0.00078049152110733525 0.0012619878670038242 -0.0078351236301240808
leaf_weight=95346 29659 52165 236419 178186 2156 143411 76744 131816 1817
leaf_count=95346 29659 52165 236419 178186 2156 143411 76744 131816 1817
internal_value=0 -0.000154289 0.000451822 -0.00130901 -0.00123335 -0.00318675 0.00198982 0.000312198 0.00449123
internal_weight=0 916243 586695 273532 329548 145567 313163 183981 31476
internal_count=947719 916243 586695 273532 329548 145567 313163 183981 31476
is_linear=0
shrinkage=0.17


Tree=29
num_leaves=10
num_cat=0
split_feature=11 12 11 3 3 4 11 12 2
split_gain=19.7076 17.5476 17.021 45.6369 32.6156 6.10005 4.3188 5.53241 4.60876
threshold=213.50000000000003 53.500000000000007 52.500000000000007 -97.394836877441392 -91.563114166259751 47.500000000000007 350.50000000000006 58.500000000000007 37.742994308471687
decision_type=2 2 2 2 2 2 2 2 2
left_child=1 2 4 -4 -1 -3 7 8 -2
right_child=6 5 3 -5 -6 -7 -8 -9 -10
leaf_value=0.0011040903906435048 0.018849056317020531 -0.019906462095611685 -0.0038472162796721917 0.0045223709917412902 -0.0010751562247766724 -0.0038459446417255095 0.019350599193343872 -0.0028415943268919365 0.0054133437160774388
leaf_weight=317701 1346 1689 26211 66844 528891 1148 1201 1055 1633
leaf_count=317701 1346 1689 26211 66844 528891 1148 1201 1055 1633
internal_value=0 -5.77761e-05 -1.74702e-05 0.00216489 -0.000257349 -0.0134075 0.0104017 0.00773747 0.011484
internal_weight=0 942484 939647 93055 846592 2837 5235 4034 2979
internal_count=947719 942484 939647 93055 846592 2837 5235 4034 2979
is_linear=0
shrinkage=0.17


Tree=30
num_leaves=10
num_cat=0
split_feature=2 2 10 2 2 3 11 2 3
split_gain=17.4671 108.85 63.2743 59.6979 44.1345 51.427 37.1919 32.5226 29.8151
threshold=33.499458312988288 33.440423965454109 13.500000000000002 34.958068847656257 35.339486453247076 -80.713611602783189 6.5000000000000009 34.125408172607429 -103.19837585449217
decision_type=2 2 2 2 2 2 2 2 2
left_child=1 8 6 7 5 -5 -3 -2 -1
right_child=3 2 -4 4 -6 -7 -8 -9 -10
leaf_value=-0.0055044629836087048 0.0024108117564473749 -0.019100986139820617 -0.058038542557356979 -0.0031671643960655446 0.00011850204122169407 -0.021850012998443531 0.0050395747525006761 0.0094689762714801201 0.00033260561763815913
leaf_weight=29175 64257 7989 1013 20431 600462 5379 2398 26709 189906
leaf_count=29175 64257 7989 1013 20431 600462 5379 2398 26709 189906
internal_value=0 -0.00128746 -0.017483 0.000413719 -0.000177373 -0.00706081 -0.0135278 0.0044832 -0.000444716
internal_weight=0 230481 11400 717238 626272 25810 10387 90966 219081
internal_count=947719 230481 11400 717238 626272 25810 10387 90966 219081
is_linear=0
shrinkage=0.17


Tree=31
num_leaves=10
num_cat=3
split_feature=0 6 1 6 2 3 3 6 5
split_gain=16.7522 24.6892 17.6534 47.4454 26.4523 19.2792 105.283 43.1286 14.3578
threshold=21.500000000000004 0 1.0000000180025095e-35 1 47.65614318847657 -95.134234045410139 -95.130523681640597 2 319.50000000000006
decision_type=2 9 2 9 2 2 2 9 2
left_child=2 -2 5 4 -4 7 -7 -1 -5
right_child=1 -3 3 8 -6 6 -8 -9 -10
leaf_value=0.0034083566740131075 -0.0035761811408735575 0.0036497614322279471 -0.002265316487269891 0.0041231732644293594 0.011138676166938513 -0.035789666638663599 0.00031275726184875664 -0.0035494473033807687 -0.016228225670974386
leaf_weight=149918 72540 16837 214627 50778 4341 2348 404223 31085 1022
leaf_count=149918 72540 16837 214627 50778 4341 2348 404223 31085 1022
internal_value=0 -0.00221495 0.000230637 -0.000905069 -0.00199958 0.000753997 0.000104261 0.00221344 0.00372165
internal_weight=0 89377 858342 270768 218968 587574 406571 181003 51800
internal_count=947719 89377 858342 270768 218968 587574 406571 181003 51800
cat_boundaries=0 1 2 3
cat_threshold=1 1 1
is_linear=0
shrinkage=0.17


Tree=32
num_leaves=10
num_cat=0
split_feature=11 9 11 2 13 7 2 3 3
split_gain=15.5617 80.24 64.9541 51.226 42.3501 42.2506 39.3859 31.8699 29.8599
threshold=1.0000000180025095e-35 1.5000000000000002 13.500000000000002 43.181430816650398 2.5000000000000004 1.5000000000000002 17.367574127197269 -122.70182800292969 -123.06592559814452
decision_type=2 2 2 2 2 2 2 2 2
left_child=7 2 3 -2 5 -3 -6 8 -1
right_child=1 4 -4 -5 6 -7 -8 -9 -10
leaf_value=0.0065037989153270163 -0.0062205662852008389 0.00051057981178160401 0.02317900265083591 0.007531184371890768 -0.015701070749563468 0.006699467743845079 -0.00023415639598392652 0.0014267647122580167 -0.018674683538546254
leaf_weight=1982 102023 77039 2387 8479 4810 54383 440798 251472 4346
leaf_count=1982 102023 77039 2387 8479 4810 54383 440798 251472 4346
internal_value=0 -0.000421095 -0.00456604 -0.00516537 0.000389813 0.00307157 -0.00040111 0.00112693 -0.0107885
internal_weight=0 689919 112889 110502 577030 131422 445608 257800 6328
internal_count=947719 689919 112889 110502 577030 131422 445608 257800 6328
is_linear=0
shrinkage=0.17


Tree=33
num_leaves=10
num_cat=1
split_feature=9 2 3 3 6 12 8 2 13
split_gain=14.5997 33.0932 253.945 54.8064 23.0588 21.4256 21.063 15.8492 15.4793
threshold=55.500000000000007 33.551670074462898 -100.84635543823241 -111.784610748291 0 42.500000000000007 5.5000000000000009 38.707872390747077 3.5000000000000004
decision_type=2 2 2 2 9 2 2 2 2
left_child=5 2 3 -2 7 8 -4 -3 -1
right_child=1 4 6 -5 -6 -7 -8 -9 -10
leaf_value=0.00033531454429171773 -0.031266312429862601 0.013155470178965756 0.014319303476192443 -0.082379744182653009 -0.002573963071165235 -0.021978576717280322 -0.0073977906858486786 0.0047088372304031961 -0.0012107065643892454
leaf_weight=633405 1429 9655 5992 1053 8420 1298 1645 19161 265661
leaf_count=633405 1429 9655 5992 1053 8420 1298 1645 19161 265661
internal_value=0 0.00290942 -0.00571139 -0.0529514 0.00525216 -0.000153022 0.00964147 0.00753894 -0.000121512
internal_weight=0 47355 10119 2482 37236 900364 7637 28816 899066
internal_count=947719 47355 10119 2482 37236 900364 7637 28816 899066
cat_boundaries=0 1
cat_threshold=1
is_linear=0
shrinkage=0.17


Tree=34
num_leaves=10
num_cat=1
split_feature=0 0 0 0 6 3 1 3 9
split_gain=14.1307 31.0039 33.6739 29.8736 24.6659 22.9698 22.6847 22.6723 20.9961
threshold=1.5000000000000002 10.500000000000002 7.5000000000000009 17.500000000000004 0 9.9820841407775909 1.0000000180025095e-35 -93.135410308837876 5.5000000000000009
decision_type=2 2 2 2 9 2 2 2 2
left_child=8 2 5 6 -4 -2 -3 -5 -1
right_child=1 3 4 7 -6 -7 -8 -9 -10
leaf_value=0.0048365261122576891 -0.0013764653765187933 0.002131468471134304 -0.0081980524632496408 0.00087112203051028299 0.0049332456726670932 0.010832361539685413 -0.00091097976108692159 -0.0019652783926595611 -0.0011508978261370393
leaf_weight=40469 120818 277094 34603 134343 4695 4624 95143 206835 29095
leaf_count=40469 120818 277094 34603 134343 4695 4624 95143 206835 29095
internal_value=0 -0.000184756 -0.00228681 0.000300645 -0.00662923 -0.000926428 0.00135383 -0.000848411 0.0023323
internal_weight=0 878155 164740 713415 39298 125442 372237 341178 69564
internal_count=947719 878155 164740 713415 39298 125442 372237 341178 69564
cat_boundaries=0 1
cat_threshold=1
is_linear=0
shrinkage=0.17


Tree=35
num_leaves=10
num_cat=0
split_feature=12 9 11 2 2 2 2 2 3
split_gain=12.8743 59.1069 35.4924 79.0588 32.9166 30.219 79.3732 69.1899 44.7747
threshold=1.0000000180025095e-35 8.5000000000000018 2.5000000000000004 29.620670318603519 17.367574127197269 41.765196969604496 41.832403182983406 41.817430496215827 -84.386772155761705
decision_type=2 2 2 2 2 2 2 2 2
left_child=5 2 3 -2 -3 -1 7 -7 -8
right_child=1 4 -4 -5 -6 6 8 -9 -10
leaf_value=0.00018314029387565237 -0.021099539703770216 -0.025762030636871273 0.006328257406567896 0.0066804925804285391 -0.00032892022736116024 -0.0020874278913467926 0.00074840319728809897 -0.040136313130051199 -0.0055759366314267252
leaf_weight=491303 4651 1480 69321 8146 233220 2567 79481 2990 54560
leaf_count=491303 4651 1480 69321 8146 233220 2567 79481 2990 54560
internal_value=0 0.000884192 0.00480974 -0.00341601 -0.000489299 -0.000444012 -0.00265122 -0.02256 -0.00182585
internal_weight=0 316818 82118 12797 234700 630901 139598 5557 134041
internal_count=947719 316818 82118 12797 234700 630901 139598 5557 134041
is_linear=0
shrinkage=0.17


Tree=36
num_leaves=10
num_cat=0
split_feature=11 9 3 3 13 3 3 3 7
split_gain=13.6785 57.3587 26.5472 41.2319 26.306 39.9431 53.7184 36.4764 34.5328
threshold=24.500000000000004 5.5000000000000009 -79.694240570068345 -81.063770294189439 3.5000000000000004 -73.727085113525376 -76.69604110717772 9.9820841407775909 1.5000000000000002
decision_type=2 2 2 2 2 2 2 2 2
left_child=4 -2 3 -3 8 6 -6 -7 -1
right_child=1 2 -4 -5 5 7 -8 -9 -10
leaf_value=-0.00049660772843841455 0.027406804406846799 0.00057040968408225722 0.0039244276927542709 -0.0090012271644602741 -0.0029230616728538679 -0.016880486807877057 0.0099749063335024674 0.0088878557676927445 0.0029465949936327718
leaf_weight=493836 2376 157155 60349 14180 96952 9147 10326 1921 101477
leaf_count=493836 2376 157155 60349 14180 96952 9147 10326 1921 101477
internal_value=0 0.00112774 0.000858241 -0.000221757 -0.000369867 -0.00268474 -0.00168157 -0.012408 9.03203e-05
internal_weight=0 234060 231684 171335 713659 118346 107278 11068 595313
internal_count=947719 234060 231684 171335 713659 118346 107278 11068 595313
is_linear=0
shrinkage=0.17


Tree=37
num_leaves=10
num_cat=2
split_feature=11 11 7 6 2 13 6 9 2
split_gain=12.5161 59.0341 64.9275 47.4801 45.9843 36.9295 46.6971 26.2969 23.1883
threshold=1.0000000180025095e-35 3.5000000000000004 1.0000000180025095e-35 0 39.551147460937507 2.5000000000000004 1 1.0000000180025095e-35 42.538131713867195
decision_type=2 2 2 9 2 2 9 2 2
left_child=8 2 3 -2 -4 6 -3 -7 -1
right_child=1 5 4 -5 -6 7 -8 -9 -10
leaf_value=0.0017480011773127638 -0.0068314670265418181 0.0052115361378141274 0.0078299213224383869 0.0051059486360381474 -0.0036765437446120279 0.016218334903068524 -0.0052925256071488271 -0.00029607341830100022 -0.0025147595013858821
leaf_weight=213207 95100 77201 21260 10714 19015 2804 14534 449291 44593
leaf_count=213207 95100 77201 21260 10714 19015 2804 14534 449291 44593
internal_value=0 -0.000377646 -0.00341171 -0.00562277 0.00239738 0.000437393 0.00354733 -0.000193647 0.00101065
internal_weight=0 689919 146089 105814 40275 543830 91735 452095 257800
internal_count=947719 689919 146089 105814 40275 543830 91735 452095 257800
cat_boundaries=0 1 2
cat_threshold=1 1
is_linear=0
shrinkage=0.17


Tree=38
num_leaves=10
num_cat=1
split_feature=3 2 2 3 3 6 2 11 5
split_gain=12.2224 36.039 69.5283 46.419 32.1799 29.0924 13.9276 13.8094 13.1655
threshold=-121.79596710205077 45.450312911987311 47.272397994995117 -122.35772323608397 -121.60229873657225 0 53.414604187011726 1.0000000180025095e-35 29.500000000000004
decision_type=2 2 2 2 2 9 2 2 2
left_child=1 5 3 -3 -2 7 8 -1 -6
right_child=4 2 -4 -5 6 -7 -8 -9 -10
leaf_value=0.017616873442887395 -0.015971152474156407 -0.006822909552797473 0.0049386641278721414 -0.035134652612847456 -0.00026854251798534009 -0.0041033770323252164 0.017255975600767012 0.007471948913817578 0.0026741961978216057
leaf_weight=5231 3702 10230 19236 2001 839377 5253 1336 14989 46364
leaf_count=5231 3702 10230 19236 2001 839377 5253 1336 14989 46364
internal_value=0 0.0024147 -0.00143333 -0.0114547 -0.000154352 0.00716821 -8.83441e-05 0.0100965 -0.000114505
internal_weight=0 56940 31467 12231 890779 25473 887077 20220 885741
internal_count=947719 56940 31467 12231 890779 25473 887077 20220 885741
cat_boundaries=0 1
cat_threshold=1
is_linear=0
shrinkage=0.17


Tree=39
num_leaves=9
num_cat=1
split_feature=11 12 6 4 11 9 11 3
split_gain=11.3278 12.6072 17.4933 14.7652 12.5125 28.831 14.2556 1.10862
threshold=288.00000000000006 53.500000000000007 0 47.500000000000007 52.500000000000007 24.500000000000004 1.0000000180025095e-35 -80.108154296874986
decision_type=2 2 9 2 2 2 2 2
left_child=1 4 3 -3 6 -6 -1 -2
right_child=7 2 -4 -5 5 -7 -8 -9
leaf_value=0.000855914074046822 0.015896094697145917 -0.030309456529360661 0.0069361524180221812 -0.004043680761791158 0.013078477584780019 0.0010774222773210717 -0.0006599375055185518 0.0084965355970529934
leaf_weight=257800 1034 1329 1196 1157 6188 88875 588792 1348
leaf_count=257800 1034 1329 1196 1157 6188 88875 588792 1348
internal_value=0 -2.95026e-05 -0.00995768 -0.0180852 9.3179e-06 0.00185862 -0.000198338 0.0117086
internal_weight=0 945337 3682 2486 941655 95063 846592 2382
internal_count=947719 945337 3682 2486 941655 95063 846592 2382
cat_boundaries=0 1
cat_threshold=1
is_linear=0
shrinkage=0.17


Tree=40
num_leaves=10
num_cat=2
split_feature=0 6 11 3 9 0 6 3 3
split_gain=10.3461 15.7388 18.1497 20.6653 15.612 13.9589 25.5841 41.0533 19.5293
threshold=19.500000000000004 0 52.500000000000007 -84.440704345703111 24.500000000000004 12.500000000000002 1 9.9820841407775909 -70.603088378906236
decision_type=2 9 2 2 2 2 9 2 2
left_child=5 2 3 -2 -4 6 7 -1 -7
right_child=1 -3 4 -5 -6 8 -8 -9 -10
leaf_value=-0.001799653864819919 -0.00069592894369669854 0.0020730536113566372 0.021695909037388151 -0.00471233962679409 0.0019214177092415994 0.0010571671403451749 0.0029134479774093345 0.010090332361987376 -0.0064058458146780337
leaf_weight=228040 89004 38051 1234 63390 17763 442372 48781 8713 10371
leaf_count=228040 89004 38051 1234 63390 17763 442372 48781 8713 10371
internal_value=0 -0.00105457 -0.00174894 -0.0023666 0.00320592 0.000299171 -0.000631641 -0.00136208 0.000886212
internal_weight=0 209442 171391 152394 18997 738277 285534 236753 452743
internal_count=947719 209442 171391 152394 18997 738277 285534 236753 452743
cat_boundaries=0 1 2
cat_threshold=1 1
is_linear=0
shrinkage=0.17


Tree=41
num_leaves=10
num_cat=0
split_feature=0 0 7 0 0 3 3 9 11
split_gain=10.6394 16.9335 21.7603 23.0845 18.1777 18.5957 17.6156 15.4639 14.2636
threshold=1.5000000000000002 10.500000000000002 21.500000000000004 7.5000000000000009 16.500000000000004 -93.135410308837876 -111.54822921752928 5.5000000000000009 10.500000000000002
decision_type=2 2 2 2 2 2 2 2 2
left_child=7 2 3 -2 6 -6 -3 8 -1
right_child=1 4 -4 -5 5 -7 -8 -9 -10
leaf_value=0.0033815426321675791 -0.00086252122336720656 -0.0023013675713451473 0.011737129027807552 -0.0056406059619202604 0.00088782373125625828 -0.0014661184099409954 0.0016647511122833748 -0.00096552406797302027 0.017044391074653321
leaf_weight=38125 123009 36784 3404 38327 159277 248005 269349 29095 2344
leaf_count=38125 123009 36784 3404 38327 159277 248005 269349 29095 2344
internal_value=0 -0.000160315 -0.0017138 -0.0019976 0.000198413 -0.000545555 0.00118819 0.00202377 0.00417291
internal_weight=0 878155 164740 161336 713415 407282 306133 69564 40469
internal_count=947719 878155 164740 161336 713415 407282 306133 69564 40469
is_linear=0
shrinkage=0.17


Tree=42
num_leaves=10
num_cat=1
split_feature=2 2 3 2 2 9 3 6 2
split_gain=8.98403 45.8928 57.3065 43.1053 81.4951 54.2618 36.7994 28.9799 25.1338
threshold=33.60498237609864 33.237495422363288 -116.91504287719725 35.118478775024421 35.339486453247076 19.500000000000004 -112.39526367187499 0 35.021951675415046
decision_type=2 2 2 2 2 2 2 9 2
left_child=1 -1 -3 7 5 -5 -4 8 -2
right_child=3 2 6 4 -6 -7 -8 -9 -10
leaf_value=-3.8857758552610008e-06 0.0041642035167063158 0.028795231116783792 -0.028053514605396752 -0.0063565442710221609 8.9604727807868217e-05 -0.029467768498492856 -0.0067358010655274502 -0.0028302344247050633 0.01565276385536438
leaf_weight=207626 72407 1233 2568 10680 600462 4049 26384 16354 5956
leaf_count=207626 72407 1233 2568 10680 600462 4049 26384 16354 5956
internal_value=0 -0.000904336 -0.00709804 0.000302942 -0.000216841 -0.0127098 -0.00862665 0.00367896 0.00503739
internal_weight=0 237811 30185 709908 615191 14729 28952 94717 78363
internal_count=947719 237811 30185 709908 615191 14729 28952 94717 78363
cat_boundaries=0 1
cat_threshold=1
is_linear=0
shrinkage=0.17


Tree=43
num_leaves=10
num_cat=0
split_feature=2 2 2 2 3 9 2 2 2
split_gain=8.80093 10.3155 57.9403 69.8217 31.7927 53.6955 26.1866 10.9363 9.92834
threshold=47.65614318847657 40.801057815551765 40.603070007324227 40.509607608032233 -69.770248413085923 6.5000000000000009 42.964767456054695 40.748392105102546 48.225008010864265
decision_type=2 2 2 2 2 2 2 2 2
left_child=1 2 3 -1 6 -6 -3 -4 -2
right_child=8 4 7 -5 5 -7 -8 -9 -10
leaf_value=0.00015505264490943475 0.0071145332187597284 -0.0020701085161148273 0.0050344597449738567 -0.013212334925763427 0.005836097068247819 -0.033131299614191784 0.0014989797809815059 0.011594745744135167 -0.00034012507584055333
leaf_weight=623311 10561 160413 22416 11501 1843 2294 94356 10922 10102
leaf_count=623311 10561 160413 22416 11501 1843 2294 94356 10922 10102
internal_value=0 -7.73423e-05 0.000275658 -8.71267e-05 -0.00098832 -0.0157716 -0.000748264 0.0071837 0.00347
internal_weight=0 927056 668150 634812 258906 4137 254769 33338 20663
internal_count=947719 927056 668150 634812 258906 4137 254769 33338 20663
is_linear=0
shrinkage=0.17


Tree=44
num_leaves=10
num_cat=2
split_feature=13 3 6 3 11 6 10 9 2
split_gain=8.54431 23.2373 26.6222 15.8671 14.4037 30.0418 35.7103 29.4745 12.3085
threshold=6.5000000000000009 -90.301372528076158 0 -115.16360855102538 49.500000000000007 1 2.5000000000000004 24.500000000000004 10.497857093811037
decision_type=2 2 9 2 2 9 2 2 2
left_child=4 2 3 -2 8 7 -7 -6 -1
right_child=1 -3 -4 -5 5 6 -8 -9 -10
leaf_value=-0.008320736452664618 -0.00486081550478618 0.0013276219907374116 0.0058326375361792953 -0.021186933990877302 0.016780780725968416 -0.014605757175854951 0.0010489923340765723 0.0027736380242357208 -9.1998753422332886e-05
leaf_weight=5287 2832 13483 2418 4383 4632 6118 13511 69240 825815
leaf_count=5287 2832 13483 2418 4383 4632 6118 13511 69240 825815
internal_value=0 -0.00322826 -0.00960499 -0.0147787 8.07098e-05 0.00208116 -0.00383031 0.00365193 -0.000144345
internal_weight=0 23116 9633 7215 924603 93501 19629 73872 831102
internal_count=947719 23116 9633 7215 924603 93501 19629 73872 831102
cat_boundaries=0 1 2
cat_threshold=1 1
is_linear=0
shrinkage=0.17


Tree=45
num_leaves=10
num_cat=2
split_feature=3 2 3 2 11 13 4 6 6
split_gain=8.57247 110.532 96.7351 32.1905 31.4118 46.106 27.4706 18.7632 18.1366
threshold=-74.293926239013658 17.367574127197269 -74.397388458251939 41.443256378173835 22.500000000000004 2.5000000000000004 49.000000000000007 0 1
decision_type=2 2 2 2 2 2 2 9 9
left_child=1 -1 -3 7 5 -5 -4 -2 -6
right_child=3 2 6 4 8 -7 -8 -9 -10
leaf_value=-0.044595379002631892 0.0054273314176094909 7.0206917958585377e-05 0.00019554865040751962 0.00017168779521749543 0.008607902136307348 -0.011652376518622045 -0.024721011162420595 -0.0023738686857251133 -0.0070835419577324451
leaf_weight=1617 50499 821350 1634 27909 10890 14473 5882 10819 2646
leaf_count=1617 50499 821350 1634 27909 10890 14473 5882 10819 2646
internal_value=0 -0.0001921 -0.000105475 0.00136081 -0.00158904 -0.0038661 -0.0193041 0.00405088 0.00554056
internal_weight=0 830483 828866 117236 55918 42382 7516 61318 13536
internal_count=947719 830483 828866 117236 55918 42382 7516 61318 13536
cat_boundaries=0 1 2
cat_threshold=1 1
is_linear=0
shrinkage=0.17


Tree=46
num_leaves=8
num_cat=1
split_feature=4 4 9 2 5 4 6
split_gain=8.09979 13.4176 21.5485 16.108 8.80356 17.6106 15.8602
threshold=3.5000000000000004 14.500000000000002 3.5000000000000004 36.309164047241218 29.500000000000004 51.500000000000007 0
decision_type=2 2 2 2 2 2 9
left_child=-1 2 -2 -4 5 -3 -6
right_child=1 4 3 -5 6 -7 -8
leaf_value=-0.012043939323625848 0.030626598076981922 -0.00010210452863050008 0.017708957864329793 -0.010230380791254098 0.0047517230348262801 -0.015636621491001989 -0.0015594098073568831
leaf_weight=1611 1070 892546 1040 1398 28753 2114 19187
leaf_count=1611 1070 892546 1040 1398 28753 2114 19187
internal_value=0 2.0508e-05 0.0105147 0.00168796 -1.85475e-05 -0.000138811 0.00222582
internal_weight=0 946108 3508 2438 942600 894660 47940
internal_count=947719 946108 3508 2438 942600 894660 47940
cat_boundaries=0 1
cat_threshold=1
is_linear=0
shrinkage=0.17


Tree=47
num_leaves=9
num_cat=2
split_feature=5 0 6 1 13 6 11 3
split_gain=7.72573 7.63849 15.4405 8.80439 8.64883 24.3366 14.4721 6.35811
threshold=724.50000000000011 21.500000000000004 0 1.0000000180025095e-35 5.5000000000000009 1 20.500000000000004 -117.29228591918944
decision_type=2 2 9 2 2 9 2 2
left_child=1 4 3 -3 6 -6 -1 -4
right_child=-2 2 7 -5 5 -7 -8 -9
leaf_value=-8.9218873240413965e-05 -0.013603445013934196 -0.0039734366222569624 -0.0043928231698646012 -8.0461758955984797e-05 -0.004011286823165542 0.0038584584417528842 0.0016029906896586218 0.0046138278201825235
leaf_weight=607987 1205 46080 2699 26413 41350 15656 192237 14092
leaf_count=607987 1205 46080 2699 26413 41350 15656 192237 14092
internal_value=0 1.73185e-05 -0.00147909 -0.00255502 0.000173176 -0.00184996 0.000317299 0.00316609
internal_weight=0 946514 89284 72493 857230 57006 800224 16791
internal_count=947719 946514 89284 72493 857230 57006 800224 16791
cat_boundaries=0 1 2
cat_threshold=1 1
is_linear=0
shrinkage=0.17


Tree=48
num_leaves=10
num_cat=1
split_feature=0 9 0 6 3 0 1 3 3
split_gain=7.28387 11.2122 10.8103 18.4842 28.7615 11.8963 13.9305 11.7665 11.5343
threshold=1.5000000000000002 5.5000000000000009 10.500000000000002 0 -71.152591705322251 16.500000000000004 1.0000000180025095e-35 -93.135410308837876 -71.414096832275376
decision_type=2 2 2 9 2 2 2 2 2
left_child=1 -1 3 4 -2 6 -4 -7 -5
right_child=2 -3 5 8 -6 7 -8 -9 -10
leaf_value=0.0035044866193895776 -0.0028609157727718919 -0.00087089005670623186 0.0016225429080576159 0.0037600080321239554 0.0063817061482604222 0.00069231483519143161 -0.001014434097411998 -0.0011801462722925394 -0.0099491559061556725
leaf_weight=40469 127949 29095 228600 24347 10531 159277 77533 248005 1913
leaf_count=40469 127949 29095 228600 24347 10531 159277 77533 248005 1913
internal_value=0 0.00167449 -0.000132647 -0.00137388 -0.00215804 0.000153976 0.000954687 -0.000447877 0.00276132
internal_weight=0 69564 878155 164740 138480 713415 306133 407282 26260
internal_count=947719 69564 878155 164740 138480 713415 306133 407282 26260
cat_boundaries=0 1
cat_threshold=1
is_linear=0
shrinkage=0.17


Tree=49
num_leaves=9
num_cat=1
split_feature=11 12 6 4 4 4 13 2
split_gain=7.5494 10.5766 14.4211 8.06678 9.3782 5.01525 3.56785 0.78503
threshold=231.50000000000003 51.500000000000007 0 3.5000000000000004 14.500000000000002 47.500000000000007 6.5000000000000009 37.742994308471687
decision_type=2 2 9 2 2 2 2 2
left_child=1 3 5 -1 -5 -3 7 -2
right_child=6 2 -4 4 -6 -7 -8 -9
leaf_value=-0.012914332327810136 0.014587968172409494 -0.024683527453101352 0.0059959927037832698 0.0087973070623937888 -1.0207453575837372e-05 -0.0088507091887953249 7.891995932185288e-05 0.0086173282972364304
leaf_weight=1395 1038 1214 1172 3507 935343 1104 1301 1645
leaf_count=1395 1038 1214 1172 3507 935343 1104 1301 1645
internal_value=0 -3.11745e-05 -0.0093724 3.49823e-06 2.26923e-05 -0.0171428 0.00738466 0.0109273
internal_weight=0 943735 3490 940245 938850 2318 3984 2683
internal_count=947719 943735 3490 940245 938850 2318 3984 2683
cat_boundaries=0 1
cat_threshold=1
is_linear=0
shrinkage=0.17


end of trees

feature_importances:
6=70
5=58
9=56
14=51
3=45
12=39
8=36
16=20
4=17
7=17
10=14
15=12
13=7
11=3

parameters:
[boosting: gbdt]
[objective: regression]
[metric: l2]
[tree_learner: serial]
[device_type: cpu]
[data: ]
[valid: ]
[num_iterations: 50]
[learning_rate: 0.17]
[num_leaves: 10]
[num_threads: -1]
[deterministic: 0]
[force_col_wise: 0]
[force_row_wise: 0]
[histogram_pool_size: -1]
[max_depth: 4]
[min_data_in_leaf: 1000]
[min_sum_hessian_in_leaf: 0.001]
[bagging_fraction: 1]
[pos_bagging_fraction: 1]
[neg_bagging_fraction: 1]
[bagging_freq: 0]
[bagging_seed: 15813]
[feature_fraction: 1]
[feature_fraction_bynode: 1]
[feature_fraction_seed: 30745]
[extra_trees: 0]
[extra_seed: 21789]
[early_stopping_round: 20]
[first_metric_only: 0]
[max_delta_step: 0]
[lambda_l1: 0]
[lambda_l2: 0]
[linear_lambda: 0]
[min_gain_to_split: 0]
[drop_rate: 0.1]
[max_drop: 50]
[skip_drop: 0.5]
[xgboost_dart_mode: 0]
[uniform_drop: 0]
[drop_seed: 32257]
[top_rate: 0.2]
[other_rate: 0.1]
[min_data_per_group: 100]
[max_cat_threshold: 32]
[cat_l2: 10]
[cat_smooth: 10]
[max_cat_to_onehot: 4]
[top_k: 20]
[monotone_constraints: ]
[monotone_constraints_method: basic]
[monotone_penalty: 0]
[feature_contri: ]
[forcedsplits_filename: ]
[refit_decay_rate: 0.9]
[cegb_tradeoff: 1]
[cegb_penalty_split: 0]
[cegb_penalty_feature_lazy: ]
[cegb_penalty_feature_coupled: ]
[path_smooth: 0]
[interaction_constraints: ]
[verbosity: -1]
[saved_feature_importance_type: 0]
[linear_tree: 0]
[max_bin: 255]
[max_bin_by_feature: ]
[min_data_in_bin: 3]
[bin_construct_sample_cnt: 200000]
[data_random_seed: 6641]
[is_enable_sparse: 1]
[enable_bundle: 1]
[use_missing: 1]
[zero_as_missing: 0]
[feature_pre_filter: 1]
[pre_partition: 0]
[two_round: 0]
[header: 0]
[label_column: ]
[weight_column: ]
[group_column: ]
[ignore_column: ]
[categorical_feature: 6]
[forcedbins_filename: ]
[precise_float_parser: 0]
[objective_seed: 24476]
[num_class: 1]
[is_unbalance: 0]
[scale_pos_weight: 1]
[sigmoid: 1]
[boost_from_average: 1]
[reg_sqrt: 0]
[alpha: 0.9]
[fair_c: 1]
[poisson_max_delta_step: 0.7]
[tweedie_variance_power: 1.5]
[lambdarank_truncation_level: 30]
[lambdarank_norm: 1]
[label_gain: ]
[eval_at: ]
[multi_error_top_k: 1]
[auc_mu_weights: ]
[num_machines: 1]
[local_listen_port: 12400]
[time_out: 120]
[machine_list_filename: ]
[machines: ]
[gpu_platform_id: -1]
[gpu_device_id: -1]
[gpu_use_dp: 0]
[num_gpu: 1]

end of parameters

pandas_categorical:[["Bgtask"]]
